1.023535,
-0.364015,
-0.974733,
-0.906374,
0.612199,
1.209334,
-1.208074,
1.317639,
0.011983,
-0.110001,
-0.466256,
-1.220137,
0.206109,
-0.414304,
-0.086787,
0.429180,
-0.680454,
-0.208929,
-0.240843,
-0.507437,
-1.363626,
0.322497,
1.483358,
0.410515,
-0.826723,
-0.115388,
1.005823,
1.164062,
0.372428,
0.828978,
1.041478,
0.103580,
0.464531,
-0.962133,
0.542726,
-0.426913,
-0.912390,
-0.768502,
-0.873472,
0.147542,
0.648196,
0.939831,
1.501488,
0.888917,
1.257160,
0.660561,
0.995878,
-0.927315,
0.065183,
0.722356,
0.324445,
-0.035852,
0.404748,
-1.293159,
0.567562,
0.111300,
0.126615,
1.078100,
-0.610341,
-1.491919,
0.776361,
0.206259,
0.387344,
0.875382,
-1.065172,
-0.730103,
-0.203427,
-0.579736,
-0.515749,
0.693850,
-1.031019,
-0.965494,
-0.305871,
0.793399,
0.005424,
0.423359,
-0.844010,
0.470938,
-0.575873,
-1.461789,
-0.140760,
1.445758,
0.068218,
0.092625,
-1.102870,
0.724571,
0.543204,
-0.169629,
0.331021,
-0.275560,
-0.110192,
0.240822,
0.245170,
-0.191572,
0.640630,
-0.332202,
0.098749,
0.025411,
-0.832912,
0.067402,
0.770859,
0.060880,
-0.544712,
0.041097,
-0.250472,
-0.048776,
-0.945555,
-0.304704,
-0.087908,
-0.576806,
0.294795,
1.370962,
1.105194,
0.252858,
0.484485,
0.907968,
-0.445775,
-1.003107,
0.684950,
-0.412232,
1.191553,
0.471603,
1.168657,
-0.595258,
0.078754,
0.682208,
-1.207712,
1.062788,
-0.132945,
-0.846716,
0.778836,
-0.701595,
0.599475,
1.210317,
0.030723,
-0.898725,
-0.101975,
-0.892498,
-1.007713,
-0.459281,
0.315316,
0.335375,
0.891550,
0.036190,
0.607531,
-0.943306,
-0.608897,
0.175047,
0.387683,
-0.442133,
-1.402882,
0.472262,
0.393145,
-1.011280,
0.549543,
-0.992489,
-0.617285,
0.933758,
1.254215,
1.356276,
-0.885921,
-0.316762,
-1.076566,
-0.906141,
-0.925941,
-0.033067,
-0.947415,
-1.201970,
-1.042944,
-0.095460,
0.647076,
-0.520890,
1.012362,
0.906720,
-0.537397,
-0.555217,
0.234287,
0.768907,
-1.662123,
-0.480195,
-0.877517,
-0.213407,
0.787608,
-0.089541,
0.586327,
-0.903300,
0.200988,
-0.545324,
-0.692469,
0.226852,
-1.306078,
0.028304,
-0.904295,
0.461884,
0.853663,
-0.405388,
-0.972076,
-0.001747,
0.127342,
-1.239378,
-0.218230,
0.446217,
0.447794,
-1.119095,
0.128750,
-1.038508,
0.097794,
-1.018640,
-0.052557,
-0.019937,
-0.679621,
-0.799852,
-0.850639,
1.372775,
1.007408,
-0.543185,
0.603732,
0.657685,
-1.222981,
0.569893,
-1.277149,
0.067862,
0.072676,
0.602754,
-0.613090,
-1.040610,
-0.650324,
-0.136641,
0.553430,
-0.747713,
1.078129,
1.115340,
-0.402265,
-0.490453,
0.085672,
0.999433,
-1.202072,
0.345169,
-0.053611,
0.430127,
-0.677008,
1.023240,
-0.185663,
-0.052871,
-2.149414,
-0.919775,
1.270906,
-0.323288,
-0.927896,
-0.313007,
-0.562533,
-0.780327,
-0.894542,
0.688160,
0.743899,
-0.504433,
